digraph Tree {
node [shape=box, fontname="helvetica"] ;
edge [fontname="helvetica"] ;
0 [label=" Min Packet Length <= 206.0\nsquared_error = 0.192\nsamples = 153278\nvalue = 0.741"] ;
1 [label=" ACK Flag Count <= 0.5\nsquared_error = 0.241\nsamples = 66397\nvalue = 0.404"] ;
0 -> 1 [labeldistance=2.5, labelangle=45, headlabel="True"] ;
2 [label=" Min Packet Length <= 156.0\nsquared_error = 0.003\nsamples = 31778\nvalue = 0.003"] ;
1 -> 2 ;
3 [label="Subflow Fwd Packets <= 43507.5\nsquared_error = 0.001\nsamples = 31667\nvalue = 0.001"] ;
2 -> 3 ;
4 [label=" Min Packet Length <= 93.5\nsquared_error = 0.001\nsamples = 31665\nvalue = 0.001"] ;
3 -> 4 ;
5 [label=" SYN Flag Count <= 0.5\nsquared_error = 0.001\nsamples = 31615\nvalue = 0.001"] ;
4 -> 5 ;
6 [label=" Active Max <= 4611002.5\nsquared_error = 0.0\nsamples = 31435\nvalue = 0.0"] ;
5 -> 6 ;
7 [label=" Flow IAT Min <= 79599.0\nsquared_error = 0.0\nsamples = 31387\nvalue = 0.0"] ;
6 -> 7 ;
8 [label=" Min Packet Length <= 52.5\nsquared_error = 0.0\nsamples = 31178\nvalue = 0.0"] ;
7 -> 8 ;
9 [label=" Fwd Packet Length Max <= 3.0\nsquared_error = 0.0\nsamples = 30838\nvalue = 0.0"] ;
8 -> 9 ;
10 [label=" Down/Up Ratio <= 1.5\nsquared_error = 0.002\nsamples = 5167\nvalue = 0.002"] ;
9 -> 10 ;
11 [label="Fwd Packets/s <= 1750000.0\nsquared_error = 0.0\nsamples = 3303\nvalue = 0.0"] ;
10 -> 11 ;
12 [label="squared_error = 0.0\nsamples = 3001\nvalue = 0.0"] ;
11 -> 12 ;
13 [label=" min_seg_size_forward <= 26.0\nsquared_error = 0.003\nsamples = 302\nvalue = 0.003"] ;
11 -> 13 ;
14 [label=" min_seg_size_forward <= 10.0\nsquared_error = 0.04\nsamples = 24\nvalue = 0.042"] ;
13 -> 14 ;
15 [label="squared_error = 0.0\nsamples = 23\nvalue = 0.0"] ;
14 -> 15 ;
16 [label="squared_error = 0.0\nsamples = 1\nvalue = 1.0"] ;
14 -> 16 ;
17 [label="squared_error = 0.0\nsamples = 278\nvalue = 0.0"] ;
13 -> 17 ;
18 [label=" Flow IAT Std <= 166524.711\nsquared_error = 0.004\nsamples = 1864\nvalue = 0.004"] ;
10 -> 18 ;
19 [label=" Bwd IAT Std <= 877.878\nsquared_error = 0.002\nsamples = 1837\nvalue = 0.002"] ;
18 -> 19 ;
20 [label=" Down/Up Ratio <= 3.5\nsquared_error = 0.001\nsamples = 1815\nvalue = 0.001"] ;
19 -> 20 ;
21 [label="squared_error = 0.0\nsamples = 1582\nvalue = 0.0"] ;
20 -> 21 ;
22 [label="Flow Bytes/s <= 241212.125\nsquared_error = 0.004\nsamples = 233\nvalue = 0.004"] ;
20 -> 22 ;
23 [label=" Flow Packets/s <= 49752.475\nsquared_error = 0.015\nsamples = 65\nvalue = 0.015"] ;
22 -> 23 ;
24 [label="squared_error = 0.0\nsamples = 64\nvalue = 0.0"] ;
23 -> 24 ;
25 [label="squared_error = 0.0\nsamples = 1\nvalue = 1.0"] ;
23 -> 25 ;
26 [label="squared_error = 0.0\nsamples = 168\nvalue = 0.0"] ;
22 -> 26 ;
27 [label="Fwd Packets/s <= 346.999\nsquared_error = 0.083\nsamples = 22\nvalue = 0.091"] ;
19 -> 27 ;
28 [label="squared_error = 0.0\nsamples = 20\nvalue = 0.0"] ;
27 -> 28 ;
29 [label="squared_error = 0.0\nsamples = 2\nvalue = 1.0"] ;
27 -> 29 ;
30 [label="Init_Win_bytes_forward <= 253.5\nsquared_error = 0.126\nsamples = 27\nvalue = 0.148"] ;
18 -> 30 ;
31 [label=" Bwd IAT Std <= 153945.281\nsquared_error = 0.245\nsamples = 7\nvalue = 0.571"] ;
30 -> 31 ;
32 [label="squared_error = 0.0\nsamples = 4\nvalue = 1.0"] ;
31 -> 32 ;
33 [label="squared_error = 0.0\nsamples = 3\nvalue = 0.0"] ;
31 -> 33 ;
34 [label="squared_error = 0.0\nsamples = 20\nvalue = 0.0"] ;
30 -> 34 ;
35 [label="Flow Bytes/s <= 95000000.0\nsquared_error = 0.0\nsamples = 25671\nvalue = 0.0"] ;
9 -> 35 ;
36 [label=" Fwd Packet Length Std <= 29.265\nsquared_error = 0.0\nsamples = 25460\nvalue = 0.0"] ;
35 -> 36 ;
37 [label="squared_error = 0.0\nsamples = 24705\nvalue = 0.0"] ;
36 -> 37 ;
38 [label=" Packet Length Variance <= 566.389\nsquared_error = 0.001\nsamples = 755\nvalue = 0.001"] ;
36 -> 38 ;
39 [label="squared_error = 0.0\nsamples = 1\nvalue = 1.0"] ;
38 -> 39 ;
40 [label="squared_error = 0.0\nsamples = 754\nvalue = 0.0"] ;
38 -> 40 ;
41 [label="Total Length of Fwd Packets <= 98.0\nsquared_error = 0.005\nsamples = 211\nvalue = 0.005"] ;
35 -> 41 ;
42 [label="squared_error = 0.0\nsamples = 1\nvalue = 1.0"] ;
41 -> 42 ;
43 [label="squared_error = 0.0\nsamples = 210\nvalue = 0.0"] ;
41 -> 43 ;
44 [label=" Flow Duration <= 116823.0\nsquared_error = 0.006\nsamples = 340\nvalue = 0.006"] ;
8 -> 44 ;
45 [label=" Packet Length Mean <= 56.2\nsquared_error = 0.003\nsamples = 339\nvalue = 0.003"] ;
44 -> 45 ;
46 [label="squared_error = 0.0\nsamples = 1\nvalue = 1.0"] ;
45 -> 46 ;
47 [label="squared_error = 0.0\nsamples = 338\nvalue = 0.0"] ;
45 -> 47 ;
48 [label="squared_error = 0.0\nsamples = 1\nvalue = 1.0"] ;
44 -> 48 ;
49 [label=" Flow IAT Mean <= 81351.5\nsquared_error = 0.009\nsamples = 209\nvalue = 0.01"] ;
7 -> 49 ;
50 [label="squared_error = 0.0\nsamples = 1\nvalue = 1.0"] ;
49 -> 50 ;
51 [label="Init_Win_bytes_forward <= 248.0\nsquared_error = 0.005\nsamples = 208\nvalue = 0.005"] ;
49 -> 51 ;
52 [label="Init_Win_bytes_forward <= 246.0\nsquared_error = 0.062\nsamples = 15\nvalue = 0.067"] ;
51 -> 52 ;
53 [label="squared_error = 0.0\nsamples = 14\nvalue = 0.0"] ;
52 -> 53 ;
54 [label="squared_error = 0.0\nsamples = 1\nvalue = 1.0"] ;
52 -> 54 ;
55 [label="squared_error = 0.0\nsamples = 193\nvalue = 0.0"] ;
51 -> 55 ;
56 [label=" Active Max <= 4713154.0\nsquared_error = 0.02\nsamples = 48\nvalue = 0.021"] ;
6 -> 56 ;
57 [label="squared_error = 0.0\nsamples = 1\nvalue = 1.0"] ;
56 -> 57 ;
58 [label="squared_error = 0.0\nsamples = 47\nvalue = 0.0"] ;
56 -> 58 ;
59 [label=" Fwd Packet Length Min <= 3.0\nsquared_error = 0.022\nsamples = 180\nvalue = 0.022"] ;
5 -> 59 ;
60 [label="squared_error = 0.0\nsamples = 2\nvalue = 1.0"] ;
59 -> 60 ;
61 [label=" Fwd Packet Length Min <= 17.0\nsquared_error = 0.011\nsamples = 178\nvalue = 0.011"] ;
59 -> 61 ;
62 [label="squared_error = 0.0\nsamples = 176\nvalue = 0.0"] ;
61 -> 62 ;
63 [label="squared_error = 0.0\nsamples = 2\nvalue = 1.0"] ;
61 -> 63 ;
64 [label=" Flow IAT Mean <= 1.5\nsquared_error = 0.134\nsamples = 50\nvalue = 0.16"] ;
4 -> 64 ;
65 [label="squared_error = 0.0\nsamples = 8\nvalue = 1.0"] ;
64 -> 65 ;
66 [label="squared_error = 0.0\nsamples = 42\nvalue = 0.0"] ;
64 -> 66 ;
67 [label="squared_error = 0.0\nsamples = 2\nvalue = 1.0"] ;
3 -> 67 ;
68 [label="Total Length of Fwd Packets <= 595.0\nsquared_error = 0.225\nsamples = 111\nvalue = 0.658"] ;
2 -> 68 ;
69 [label="squared_error = 0.0\nsamples = 73\nvalue = 1.0"] ;
68 -> 69 ;
70 [label="squared_error = 0.0\nsamples = 38\nvalue = 0.0"] ;
68 -> 70 ;
71 [label=" Fwd Packet Length Min <= 3.0\nsquared_error = 0.176\nsamples = 34619\nvalue = 0.772"] ;
1 -> 71 ;
72 [label="Init_Win_bytes_forward <= 7016.0\nsquared_error = 0.001\nsamples = 7904\nvalue = 0.001"] ;
71 -> 72 ;
73 [label="squared_error = 0.0\nsamples = 2\nvalue = 1.0"] ;
72 -> 73 ;
74 [label=" Bwd Header Length <= 1096.0\nsquared_error = 0.001\nsamples = 7902\nvalue = 0.001"] ;
72 -> 74 ;
75 [label="squared_error = 0.0\nsamples = 6547\nvalue = 0.0"] ;
74 -> 75 ;
76 [label=" Total Length of Bwd Packets <= 5148.0\nsquared_error = 0.004\nsamples = 1355\nvalue = 0.004"] ;
74 -> 76 ;
77 [label="Bwd Packet Length Max <= 903.0\nsquared_error = 0.109\nsamples = 48\nvalue = 0.125"] ;
76 -> 77 ;
78 [label="squared_error = 0.0\nsamples = 42\nvalue = 0.0"] ;
77 -> 78 ;
79 [label="squared_error = 0.0\nsamples = 6\nvalue = 1.0"] ;
77 -> 79 ;
80 [label="squared_error = 0.0\nsamples = 1307\nvalue = 0.0"] ;
76 -> 80 ;
81 [label="squared_error = 0.0\nsamples = 26715\nvalue = 1.0"] ;
71 -> 81 ;
82 [label=" Flow IAT Min <= 123874.0\nsquared_error = 0.001\nsamples = 86881\nvalue = 0.999"] ;
0 -> 82 [labeldistance=2.5, labelangle=-45, headlabel="False"] ;
83 [label=" Subflow Bwd Bytes <= 150.0\nsquared_error = 0.0\nsamples = 86760\nvalue = 1.0"] ;
82 -> 83 ;
84 [label=" URG Flag Count <= 0.5\nsquared_error = 0.0\nsamples = 86757\nvalue = 1.0"] ;
83 -> 84 ;
85 [label=" Fwd Header Length.1 <= -1.0\nsquared_error = 0.0\nsamples = 86755\nvalue = 1.0"] ;
84 -> 85 ;
86 [label=" Min Packet Length <= 260.0\nsquared_error = 0.0\nsamples = 8063\nvalue = 1.0"] ;
85 -> 86 ;
87 [label=" Packet Length Mean <= 251.0\nsquared_error = 0.001\nsamples = 1152\nvalue = 0.999"] ;
86 -> 87 ;
88 [label="squared_error = 0.0\nsamples = 1151\nvalue = 1.0"] ;
87 -> 88 ;
89 [label="squared_error = 0.0\nsamples = 1\nvalue = 0.0"] ;
87 -> 89 ;
90 [label="squared_error = 0.0\nsamples = 6911\nvalue = 1.0"] ;
86 -> 90 ;
91 [label="squared_error = 0.0\nsamples = 78692\nvalue = 1.0"] ;
85 -> 91 ;
92 [label="squared_error = 0.0\nsamples = 2\nvalue = 0.0"] ;
84 -> 92 ;
93 [label="squared_error = 0.0\nsamples = 3\nvalue = 0.0"] ;
83 -> 93 ;
94 [label="squared_error = 0.0\nsamples = 121\nvalue = 0.0"] ;
82 -> 94 ;
}
