digraph Tree {
node [shape=box, fontname="helvetica"] ;
edge [fontname="helvetica"] ;
0 [label="Bwd Packet Length Max <= 18.5\nsquared_error = 0.003\nsamples = 153661\nvalue = 0.997"] ;
1 [label=" URG Flag Count <= 0.5\nsquared_error = 0.002\nsamples = 153443\nvalue = 0.998"] ;
0 -> 1 [labeldistance=2.5, labelangle=45, headlabel="True"] ;
2 [label=" Average Packet Size <= 4.312\nsquared_error = 0.0\nsamples = 153219\nvalue = 1.0"] ;
1 -> 2 ;
3 [label=" Total Fwd Packets <= 39.5\nsquared_error = 0.12\nsamples = 36\nvalue = 0.139"] ;
2 -> 3 ;
4 [label=" Bwd Packets/s <= 6608.293\nsquared_error = 0.059\nsamples = 32\nvalue = 0.062"] ;
3 -> 4 ;
5 [label=" Flow Packets/s <= 19.424\nsquared_error = 0.031\nsamples = 31\nvalue = 0.032"] ;
4 -> 5 ;
6 [label="squared_error = 0.0\nsamples = 25\nvalue = 0.0"] ;
5 -> 6 ;
7 [label=" Flow IAT Max <= 84524.5\nsquared_error = 0.139\nsamples = 6\nvalue = 0.167"] ;
5 -> 7 ;
8 [label="squared_error = 0.0\nsamples = 5\nvalue = 0.0"] ;
7 -> 8 ;
9 [label="squared_error = 0.0\nsamples = 1\nvalue = 1.0"] ;
7 -> 9 ;
10 [label="squared_error = 0.0\nsamples = 1\nvalue = 1.0"] ;
4 -> 10 ;
11 [label=" Flow IAT Std <= 3822247.125\nsquared_error = 0.188\nsamples = 4\nvalue = 0.75"] ;
3 -> 11 ;
12 [label="squared_error = 0.0\nsamples = 3\nvalue = 1.0"] ;
11 -> 12 ;
13 [label="squared_error = 0.0\nsamples = 1\nvalue = 0.0"] ;
11 -> 13 ;
14 [label=" Packet Length Std <= 109.906\nsquared_error = 0.0\nsamples = 153183\nvalue = 1.0"] ;
2 -> 14 ;
15 [label=" Flow IAT Min <= 1225096.0\nsquared_error = 0.0\nsamples = 153182\nvalue = 1.0"] ;
14 -> 15 ;
16 [label=" Total Fwd Packets <= 17.0\nsquared_error = 0.0\nsamples = 153181\nvalue = 1.0"] ;
15 -> 16 ;
17 [label=" min_seg_size_forward <= 27.5\nsquared_error = 0.0\nsamples = 152591\nvalue = 1.0"] ;
16 -> 17 ;
18 [label="squared_error = 0.0\nsamples = 138734\nvalue = 1.0"] ;
17 -> 18 ;
19 [label=" Fwd Packet Length Min <= 72.0\nsquared_error = 0.0\nsamples = 13857\nvalue = 1.0"] ;
17 -> 19 ;
20 [label="squared_error = 0.0\nsamples = 1\nvalue = 0.0"] ;
19 -> 20 ;
21 [label="squared_error = 0.0\nsamples = 13856\nvalue = 1.0"] ;
19 -> 21 ;
22 [label="Fwd IAT Total <= 3507812.0\nsquared_error = 0.002\nsamples = 590\nvalue = 0.998"] ;
16 -> 22 ;
23 [label="squared_error = 0.0\nsamples = 562\nvalue = 1.0"] ;
22 -> 23 ;
24 [label=" Average Packet Size <= 68.588\nsquared_error = 0.034\nsamples = 28\nvalue = 0.964"] ;
22 -> 24 ;
25 [label="squared_error = 0.0\nsamples = 27\nvalue = 1.0"] ;
24 -> 25 ;
26 [label="squared_error = 0.0\nsamples = 1\nvalue = 0.0"] ;
24 -> 26 ;
27 [label="squared_error = 0.0\nsamples = 1\nvalue = 0.0"] ;
15 -> 27 ;
28 [label="squared_error = 0.0\nsamples = 1\nvalue = 0.0"] ;
14 -> 28 ;
29 [label="Fwd Packets/s <= 6.121\nsquared_error = 0.109\nsamples = 224\nvalue = 0.125"] ;
1 -> 29 ;
30 [label=" Total Fwd Packets <= 2.5\nsquared_error = 0.249\nsamples = 28\nvalue = 0.536"] ;
29 -> 30 ;
31 [label="Init_Win_bytes_forward <= 274.0\nsquared_error = 0.104\nsamples = 17\nvalue = 0.882"] ;
30 -> 31 ;
32 [label="squared_error = 0.0\nsamples = 15\nvalue = 1.0"] ;
31 -> 32 ;
33 [label="squared_error = 0.0\nsamples = 2\nvalue = 0.0"] ;
31 -> 33 ;
34 [label="squared_error = 0.0\nsamples = 11\nvalue = 0.0"] ;
30 -> 34 ;
35 [label=" Bwd IAT Max <= 618.0\nsquared_error = 0.062\nsamples = 196\nvalue = 0.066"] ;
29 -> 35 ;
36 [label=" SYN Flag Count <= 0.5\nsquared_error = 0.027\nsamples = 183\nvalue = 0.027"] ;
35 -> 36 ;
37 [label=" Fwd IAT Std <= 5018.417\nsquared_error = 0.006\nsamples = 179\nvalue = 0.006"] ;
36 -> 37 ;
38 [label="squared_error = 0.0\nsamples = 174\nvalue = 0.0"] ;
37 -> 38 ;
39 [label=" Total Fwd Packets <= 3.5\nsquared_error = 0.16\nsamples = 5\nvalue = 0.2"] ;
37 -> 39 ;
40 [label="squared_error = 0.0\nsamples = 1\nvalue = 1.0"] ;
39 -> 40 ;
41 [label="squared_error = 0.0\nsamples = 4\nvalue = 0.0"] ;
39 -> 41 ;
42 [label="squared_error = 0.0\nsamples = 4\nvalue = 1.0"] ;
36 -> 42 ;
43 [label=" Flow IAT Mean <= 9556.5\nsquared_error = 0.237\nsamples = 13\nvalue = 0.615"] ;
35 -> 43 ;
44 [label="squared_error = 0.0\nsamples = 8\nvalue = 1.0"] ;
43 -> 44 ;
45 [label="squared_error = 0.0\nsamples = 5\nvalue = 0.0"] ;
43 -> 45 ;
46 [label=" Bwd Header Length <= 1094.0\nsquared_error = 0.035\nsamples = 218\nvalue = 0.037"] ;
0 -> 46 [labeldistance=2.5, labelangle=-45, headlabel="False"] ;
47 [label="squared_error = 0.0\nsamples = 192\nvalue = 0.0"] ;
46 -> 47 ;
48 [label=" Packet Length Variance <= 77319.68\nsquared_error = 0.213\nsamples = 26\nvalue = 0.308"] ;
46 -> 48 ;
49 [label=" Active Max <= 986563.0\nsquared_error = 0.099\nsamples = 9\nvalue = 0.889"] ;
48 -> 49 ;
50 [label="squared_error = 0.0\nsamples = 8\nvalue = 1.0"] ;
49 -> 50 ;
51 [label="squared_error = 0.0\nsamples = 1\nvalue = 0.0"] ;
49 -> 51 ;
52 [label="squared_error = 0.0\nsamples = 17\nvalue = 0.0"] ;
48 -> 52 ;
}
