digraph Tree {
node [shape=box, fontname="helvetica"] ;
edge [fontname="helvetica"] ;
0 [label=" Fwd Packet Length Min <= 206.0\ngini = 0.5\nsamples = 137965\nvalue = [69642, 68323]"] ;
1 [label=" ACK Flag Count <= 0.5\ngini = 0.336\nsamples = 88497\nvalue = [69582, 18915]"] ;
0 -> 1 [labeldistance=2.5, labelangle=45, headlabel="True"] ;
2 [label=" Fwd Packet Length Min <= 151.5\ngini = 0.002\nsamples = 59121\nvalue = [59050, 71]"] ;
1 -> 2 ;
3 [label=" Fwd Packet Length Min <= 98.5\ngini = 0.001\nsamples = 58995\nvalue = [58977, 18]"] ;
2 -> 3 ;
4 [label=" Flow Duration <= 250612.5\ngini = 0.0\nsamples = 58919\nvalue = [58909, 10]"] ;
3 -> 4 ;
5 [label=" Bwd IAT Mean <= 605.0\ngini = 0.0\nsamples = 55488\nvalue = [55485, 3]"] ;
4 -> 5 ;
6 [label=" Fwd Packet Length Min <= 49.0\ngini = 0.0\nsamples = 54526\nvalue = [54524, 2]"] ;
5 -> 6 ;
7 [label="Fwd Packets/s <= 1833333.312\ngini = 0.0\nsamples = 52990\nvalue = [52989, 1]"] ;
6 -> 7 ;
8 [label="gini = 0.0\nsamples = 45900\nvalue = [45900, 0]"] ;
7 -> 8 ;
9 [label="Total Length of Fwd Packets <= 15.0\ngini = 0.0\nsamples = 7090\nvalue = [7089, 1]"] ;
7 -> 9 ;
10 [label="Init_Win_bytes_forward <= 7130.0\ngini = 0.001\nsamples = 1444\nvalue = [1443, 1]"] ;
9 -> 10 ;
11 [label="gini = 0.0\nsamples = 1115\nvalue = [1115, 0]"] ;
10 -> 11 ;
12 [label="Init_Win_bytes_forward <= 8629.0\ngini = 0.006\nsamples = 329\nvalue = [328, 1]"] ;
10 -> 12 ;
13 [label="gini = 0.0\nsamples = 1\nvalue = [0, 1]"] ;
12 -> 13 ;
14 [label="gini = 0.0\nsamples = 328\nvalue = [328, 0]"] ;
12 -> 14 ;
15 [label="gini = 0.0\nsamples = 5646\nvalue = [5646, 0]"] ;
9 -> 15 ;
16 [label="Bwd Packet Length Max <= 3.0\ngini = 0.001\nsamples = 1536\nvalue = [1535, 1]"] ;
6 -> 16 ;
17 [label="gini = 0.142\nsamples = 13\nvalue = [12, 1]"] ;
16 -> 17 ;
18 [label="gini = 0.0\nsamples = 1523\nvalue = [1523, 0]"] ;
16 -> 18 ;
19 [label=" Bwd Packets/s <= 2063.736\ngini = 0.002\nsamples = 962\nvalue = [961, 1]"] ;
5 -> 19 ;
20 [label="gini = 0.0\nsamples = 961\nvalue = [961, 0]"] ;
19 -> 20 ;
21 [label="gini = 0.0\nsamples = 1\nvalue = [0, 1]"] ;
19 -> 21 ;
22 [label=" Flow Duration <= 250901.5\ngini = 0.004\nsamples = 3431\nvalue = [3424, 7]"] ;
4 -> 22 ;
23 [label="gini = 0.0\nsamples = 1\nvalue = [0, 1]"] ;
22 -> 23 ;
24 [label=" Down/Up Ratio <= 1.5\ngini = 0.003\nsamples = 3430\nvalue = [3424, 6]"] ;
22 -> 24 ;
25 [label=" Flow Duration <= 254408.0\ngini = 0.001\nsamples = 3284\nvalue = [3283, 1]"] ;
24 -> 25 ;
26 [label="gini = 0.153\nsamples = 12\nvalue = [11, 1]"] ;
25 -> 26 ;
27 [label="gini = 0.0\nsamples = 3272\nvalue = [3272, 0]"] ;
25 -> 27 ;
28 [label="Init_Win_bytes_forward <= 248.5\ngini = 0.066\nsamples = 146\nvalue = [141, 5]"] ;
24 -> 28 ;
29 [label="Init_Win_bytes_forward <= 246.0\ngini = 0.351\nsamples = 22\nvalue = [17, 5]"] ;
28 -> 29 ;
30 [label="gini = 0.0\nsamples = 17\nvalue = [17, 0]"] ;
29 -> 30 ;
31 [label="gini = 0.0\nsamples = 5\nvalue = [0, 5]"] ;
29 -> 31 ;
32 [label="gini = 0.0\nsamples = 124\nvalue = [124, 0]"] ;
28 -> 32 ;
33 [label=" Flow Duration <= 3.0\ngini = 0.188\nsamples = 76\nvalue = [68, 8]"] ;
3 -> 33 ;
34 [label="gini = 0.0\nsamples = 7\nvalue = [0, 7]"] ;
33 -> 34 ;
35 [label=" Fwd Packet Length Max <= 116.5\ngini = 0.029\nsamples = 69\nvalue = [68, 1]"] ;
33 -> 35 ;
36 [label="gini = 0.0\nsamples = 1\nvalue = [0, 1]"] ;
35 -> 36 ;
37 [label="gini = 0.0\nsamples = 68\nvalue = [68, 0]"] ;
35 -> 37 ;
38 [label=" Fwd Packet Length Min <= 197.0\ngini = 0.487\nsamples = 126\nvalue = [73, 53]"] ;
2 -> 38 ;
39 [label="gini = 0.0\nsamples = 53\nvalue = [0, 53]"] ;
38 -> 39 ;
40 [label="gini = 0.0\nsamples = 73\nvalue = [73, 0]"] ;
38 -> 40 ;
41 [label=" Fwd Packet Length Min <= 3.0\ngini = 0.46\nsamples = 29376\nvalue = [10532, 18844]"] ;
1 -> 41 ;
42 [label="Init_Win_bytes_forward <= 7016.0\ngini = 0.0\nsamples = 10534\nvalue = [10532, 2]"] ;
41 -> 42 ;
43 [label="gini = 0.0\nsamples = 2\nvalue = [0, 2]"] ;
42 -> 43 ;
44 [label="gini = 0.0\nsamples = 10532\nvalue = [10532, 0]"] ;
42 -> 44 ;
45 [label="gini = 0.0\nsamples = 18842\nvalue = [0, 18842]"] ;
41 -> 45 ;
46 [label=" Flow IAT Min <= 153.5\ngini = 0.002\nsamples = 49468\nvalue = [60, 49408]"] ;
0 -> 46 [labeldistance=2.5, labelangle=-45, headlabel="False"] ;
47 [label=" Bwd IAT Mean <= 0.75\ngini = 0.001\nsamples = 49429\nvalue = [22, 49407]"] ;
46 -> 47 ;
48 [label="gini = 0.0\nsamples = 49407\nvalue = [0, 49407]"] ;
47 -> 48 ;
49 [label="gini = 0.0\nsamples = 22\nvalue = [22, 0]"] ;
47 -> 49 ;
50 [label="Fwd Packets/s <= 7246.753\ngini = 0.05\nsamples = 39\nvalue = [38, 1]"] ;
46 -> 50 ;
51 [label="gini = 0.0\nsamples = 38\nvalue = [38, 0]"] ;
50 -> 51 ;
52 [label="gini = 0.0\nsamples = 1\nvalue = [0, 1]"] ;
50 -> 52 ;
}
